digraph Tree {
node [shape=box, style="filled, rounded", color="black", fontname=helvetica] ;
edge [fontname=helvetica] ;
0 [label="crossing_h <= -0.96\ngini = 0.64\nsamples = 5858\nvalue = [4366, 2310, 2631]", fillcolor="#f8decc"] ;
1 [label="finishing_h <= 0.74\ngini = 0.55\nsamples = 935\nvalue = [904, 317, 254]", fillcolor="#f2bf9b"] ;
0 -> 1 [labeldistance=2.5, labelangle=45, headlabel="True"] ;
5 [label="short_passing_h <= 1.52\ngini = 0.6\nsamples = 698\nvalue = [586, 276, 229]", fillcolor="#f5cfb4"] ;
1 -> 5 ;
13 [label="heading_accuracy_h <= 0.16\ngini = 0.59\nsamples = 670\nvalue = [580, 264, 207]", fillcolor="#f5ccaf"] ;
5 -> 13 ;
35 [label="heading_accuracy_h <= -0.74\ngini = 0.62\nsamples = 404\nvalue = [328, 163, 150]", fillcolor="#f6d4bb"] ;
13 -> 35 ;
37 [label="gini = 0.57\nsamples = 193\nvalue = [180, 56, 74]", fillcolor="#f3c6a6"] ;
35 -> 37 ;
38 [label="gini = 0.64\nsamples = 211\nvalue = [148, 107, 76]", fillcolor="#fae8db"] ;
35 -> 38 ;
36 [label="gini = 0.54\nsamples = 266\nvalue = [252, 101, 57]", fillcolor="#f2c19e"] ;
13 -> 36 ;
14 [label="gini = 0.58\nsamples = 28\nvalue = [6, 12, 22]", fillcolor="#d2b8f6"] ;
5 -> 14 ;
6 [label="crossing_h <= -1.78\ngini = 0.3\nsamples = 237\nvalue = [318, 41, 25]", fillcolor="#ea995f"] ;
1 -> 6 ;
27 [label="gini = 0.48\nsamples = 66\nvalue = [69, 25, 8]", fillcolor="#f0b78e"] ;
6 -> 27 ;
28 [label="gini = 0.21\nsamples = 171\nvalue = [249, 16, 17]", fillcolor="#e89152"] ;
6 -> 28 ;
2 [label="heading_accuracy_h <= 0.09\ngini = 0.65\nsamples = 4923\nvalue = [3462, 1993, 2377]", fillcolor="#fae6d8"] ;
0 -> 2 [labeldistance=2.5, labelangle=-45, headlabel="False"] ;
3 [label="finishing_h <= 0.79\ngini = 0.66\nsamples = 2730\nvalue = [1704, 1118, 1545]", fillcolor="#fef8f4"] ;
2 -> 3 ;
9 [label="heading_accuracy_h <= -1.41\ngini = 0.66\nsamples = 2163\nvalue = [1262, 898, 1314]", fillcolor="#fcfafe"] ;
3 -> 9 ;
15 [label="short_passing_h <= 1.29\ngini = 0.64\nsamples = 301\nvalue = [128, 125, 231]", fillcolor="#dbc6f7"] ;
9 -> 15 ;
17 [label="gini = 0.66\nsamples = 238\nvalue = [118, 112, 159]", fillcolor="#ece1fb"] ;
15 -> 17 ;
18 [label="gini = 0.4\nsamples = 63\nvalue = [10, 13, 72]", fillcolor="#a471ec"] ;
15 -> 18 ;
16 [label="short_passing_h <= 0.45\ngini = 0.66\nsamples = 1862\nvalue = [1134, 773, 1083]", fillcolor="#fefcfa"] ;
9 -> 16 ;
19 [label="gini = 0.66\nsamples = 1059\nvalue = [688, 462, 540]", fillcolor="#fcefe6"] ;
16 -> 19 ;
20 [label="gini = 0.65\nsamples = 803\nvalue = [446, 311, 543]", fillcolor="#f1e9fc"] ;
16 -> 20 ;
10 [label="short_passing_h <= 2.03\ngini = 0.63\nsamples = 567\nvalue = [442, 220, 231]", fillcolor="#f7d7c0"] ;
3 -> 10 ;
11 [label="heading_accuracy_h <= -1.45\ngini = 0.62\nsamples = 552\nvalue = [442, 216, 210]", fillcolor="#f6d3ba"] ;
10 -> 11 ;
25 [label="gini = 0.66\nsamples = 68\nvalue = [34, 28, 41]", fillcolor="#f2ebfc"] ;
11 -> 25 ;
26 [label="gini = 0.61\nsamples = 484\nvalue = [408, 188, 169]", fillcolor="#f5cfb4"] ;
11 -> 26 ;
12 [label="crossing_h <= -0.8\ngini = 0.27\nsamples = 15\nvalue = [0, 4, 21]", fillcolor="#995fea"] ;
10 -> 12 ;
33 [label="gini = 0.32\nsamples = 2\nvalue = [0, 4, 1]", fillcolor="#6aeca0"] ;
12 -> 33 ;
34 [label="gini = 0.0\nsamples = 13\nvalue = [0, 0, 20]", fillcolor="#8139e5"] ;
12 -> 34 ;
4 [label="crossing_h <= 0.13\ngini = 0.62\nsamples = 2193\nvalue = [1758, 875, 832]", fillcolor="#f6d4bb"] ;
2 -> 4 ;
7 [label="crossing_h <= -0.73\ngini = 0.58\nsamples = 1103\nvalue = [986, 351, 386]", fillcolor="#f3c6a6"] ;
4 -> 7 ;
21 [label="gini = 0.65\nsamples = 163\nvalue = [110, 68, 71]", fillcolor="#f9e3d4"] ;
7 -> 21 ;
22 [label="heading_accuracy_h <= 1.27\ngini = 0.56\nsamples = 940\nvalue = [876, 283, 315]", fillcolor="#f2c29f"] ;
7 -> 22 ;
23 [label="gini = 0.59\nsamples = 744\nvalue = [663, 241, 267]", fillcolor="#f4c8a8"] ;
22 -> 23 ;
24 [label="gini = 0.46\nsamples = 196\nvalue = [213, 42, 48]", fillcolor="#eead7f"] ;
22 -> 24 ;
8 [label="heading_accuracy_h <= 0.45\ngini = 0.65\nsamples = 1090\nvalue = [772, 524, 446]", fillcolor="#fae5d7"] ;
4 -> 8 ;
29 [label="gini = 0.62\nsamples = 234\nvalue = [195, 83, 107]", fillcolor="#f7d7c0"] ;
8 -> 29 ;
30 [label="short_passing_h <= -2.21\ngini = 0.65\nsamples = 856\nvalue = [577, 441, 339]", fillcolor="#fbece2"] ;
8 -> 30 ;
31 [label="gini = 0.44\nsamples = 10\nvalue = [1, 14, 5]", fillcolor="#88efb3"] ;
30 -> 31 ;
32 [label="gini = 0.65\nsamples = 846\nvalue = [576, 427, 334]", fillcolor="#fbeadf"] ;
30 -> 32 ;
}